<?xml version="1.0"?>
<opencv_storage>
<cascade>
  <stageType>BOOST</stageType>
  <featureType>HAAR</featureType>
  <height>24</height>
  <width>24</width>
  <stageParams>
    <boostType>GAB</boostType>
    <minHitRate>9.9500000476837158e-01</minHitRate>
    <maxFalseAlarm>5.0000000000000000e-01</maxFalseAlarm>
    <weightTrimRate>9.4999998807907104e-01</weightTrimRate>
    <maxDepth>1</maxDepth>
    <maxWeakCount>100</maxWeakCount></stageParams>
  <featureParams>
    <maxCatCount>0</maxCatCount>
    <featSize>1</featSize>
    <mode>BASIC</mode></featureParams>
  <stageNum>19</stageNum>
  <stages>
    <!-- stage 0 -->
    <_>
      <maxWeakCount>4</maxWeakCount>
      <stageThreshold>-1.8067661523818970e+00</stageThreshold>
      <weakClassifiers>
        <_>
          <internalNodes>
            0 -1 74 7.5873926281929016e-02</internalNodes>
          <leafValues>
            -9.3599998950958252e-01 8.2933330535888672e-01</leafValues></_>
        <_>
          <internalNodes>
            0 -1 14 -1.1336351931095123e-01</internalNodes>
          <leafValues>
            7.0939171314239502e-01 -7.6313316822052002e-01</leafValues></_>
        <_>
          <internalNodes>
            0 -1 3 1.3171585276722908e-02</internalNodes>
          <leafValues>
            -6.8019109964370728e-01 6.3518887758255005e-01</leafValues></_>
        <_>
          <internalNodes>
            0 -1 43 -9.1316074132919312e-02</internalNodes>
          <leafValues>
            5.7255810499191284e-01 -7.3045688867568970e-01</leafValues></_></weakClassifiers></_>
    <!-- stage 1 -->
    <_>
      <maxWeakCount>2</maxWeakCount>
      <stageThreshold>-7.1334224939346313e-01</stageThreshold>
      <weakClassifiers>
        <_>
          <internalNodes>
            0 -1 70 1.1433643102645874e-01</internalNodes>
          <leafValues>
            -9.1446030139923096e-01 6.9465649127960205e-01</leafValues></_>
        <_>
          <internalNodes>
            0 -1 0 -7.1707237511873245e-03</internalNodes>
          <leafValues>
            -9.6331369876861572e-01 2.0111800730228424e-01</leafValues></_></weakClassifiers></_>
    <!-- stage 2 -->
    <_>
      <maxWeakCount>4</maxWeakCount>
      <stageThreshold>-2.0033364295959473e+00</stageThreshold>
      <weakClassifiers>
        <_>
          <internalNodes>
            0 -1 34 -1.5645594894886017e-01</internalNodes>
          <leafValues>
            7.4731183052062988e-01 -9.0029913187026978e-01</leafValues></_>
        <_>
          <internalNodes>
            0 -1 42 -1.6158719360828400e-01</internalNodes>
          <leafValues>
            4.9529471993446350e-01 -7.9619967937469482e-01</leafValues></_>
        <_>
          <internalNodes>
            0 -1 20 1.0705036402214319e-04</internalNodes>
          <leafValues>
            -6.1271941661834717e-01 4.6792021393775940e-01</leafValues></_>
        <_>
          <internalNodes>
            0 -1 109 -5.8924644254148006e-03</internalNodes>
          <leafValues>
            4.3716976046562195e-01 -7.7475786209106445e-01</leafValues></_></weakClassifiers></_>
    <!-- stage 3 -->
    <_>
      <maxWeakCount>3</maxWeakCount>
      <stageThreshold>-1.2852402925491333e+00</stageThreshold>
      <weakClassifiers>
        <_>
          <internalNodes>
            0 -1 38 -2.4774929881095886e-01</internalNodes>
          <leafValues>
            6.0629922151565552e-01 -8.6116701364517212e-01</leafValues></_>
        <_>
          <internalNodes>
            0 -1 51 1.3121724128723145e-01</internalNodes>
          <leafValues>
            -7.8565359115600586e-01 3.8893619179725647e-01</leafValues></_>
        <_>
          <internalNodes>
            0 -1 26 -1.2300883233547211e-01</internalNodes>
          <leafValues>
            3.7677496671676636e-01 -8.1300944089889526e-01</leafValues></_></weakClassifiers></_>
    <!-- stage 4 -->
    <_>
      <maxWeakCount>4</maxWeakCount>
      <stageThreshold>-1.0916960239410400e+00</stageThreshold>
      <weakClassifiers>
        <_>
          <internalNodes>
            0 -1 66 -1.7547973990440369e-01</internalNodes>
          <leafValues>
            4.7619047760963440e-01 -7.5553417205810547e-01</leafValues></_>
        <_>
          <internalNodes>
            0 -1 54 1.4579126611351967e-02</internalNodes>
          <leafValues>
            -4.0144068002700806e-01 8.9057582616806030e-01</leafValues></_>
        <_>
          <internalNodes>
            0 -1 31 1.2261313386261463e-03</internalNodes>
          <leafValues>
            -6.6507929563522339e-01 4.6070459485054016e-01</leafValues></_>
        <_>
          <internalNodes>
            0 -1 72 -9.5210969448089600e-03</internalNodes>
          <leafValues>
            8.2420980930328369e-01 -3.9542579650878906e-01</leafValues></_></weakClassifiers></_>
    <!-- stage 5 -->
    <_>
      <maxWeakCount>6</maxWeakCount>
      <stageThreshold>-1.6749725341796875e+00</stageThreshold>
      <weakClassifiers>
        <_>
          <internalNodes>
            0 -1 48 -2.1424280107021332e-01</internalNodes>
          <leafValues>
            3.0521091818809509e-01 -7.6954734325408936e-01</leafValues></_>
        <_>
          <internalNodes>
            0 -1 106 6.7905351519584656e-02</internalNodes>
          <leafValues>
            -7.1045315265655518e-01 3.0091944336891174e-01</leafValues></_>
        <_>
          <internalNodes>
            0 -1 137 3.7824525497853756e-03</internalNodes>
          <leafValues>
            1.7436280846595764e-01 -9.2975974082946777e-01</leafValues></_>
        <_>
          <internalNodes>
            0 -1 131 1.3498733751475811e-02</internalNodes>
          <leafValues>
            1.5419119596481323e-01 -9.6104496717453003e-01</leafValues></_>
        <_>
          <internalNodes>
            0 -1 88 -1.0542141273617744e-02</internalNodes>
          <leafValues>
            8.3616083860397339e-01 -2.7070957422256470e-01</leafValues></_>
        <_>
          <internalNodes>
            0 -1 95 -1.6735855489969254e-02</internalNodes>
          <leafValues>
            8.5786241292953491e-01 -2.5281649827957153e-01</leafValues></_></weakClassifiers></_>
    <!-- stage 6 -->
    <_>
      <maxWeakCount>8</maxWeakCount>
      <stageThreshold>-1.6362780332565308e+00</stageThreshold>
      <weakClassifiers>
        <_>
          <internalNodes>
            0 -1 9 -1.8312764167785645e-01</internalNodes>
          <leafValues>
            1.5185184776782990e-01 -8.4670656919479370e-01</leafValues></_>
        <_>
          <internalNodes>
            0 -1 44 -2.0897924900054932e-02</internalNodes>
          <leafValues>
            8.7411612272262573e-01 -3.7932124733924866e-01</leafValues></_>
        <_>
          <internalNodes>
            0 -1 92 -1.4150347560644150e-02</internalNodes>
          <leafValues>
            3.3233106136322021e-01 -6.8420416116714478e-01</leafValues></_>
        <_>
          <internalNodes>
            0 -1 33 4.8348467680625618e-04</internalNodes>
          <leafValues>
            -7.0141476392745972e-01 2.7026119828224182e-01</leafValues></_>
        <_>
          <internalNodes>
            0 -1 120 1.4748727902770042e-02</internalNodes>
          <leafValues>
            -2.4733205139636993e-01 8.2737195491790771e-01</leafValues></_>
        <_>
          <internalNodes>
            0 -1 122 -1.2786660343408585e-02</internalNodes>
          <leafValues>
            8.7695407867431641e-01 -1.8518172204494476e-01</leafValues></_>
        <_>
          <internalNodes>
            0 -1 65 -4.9214744940400124e-03</internalNodes>
          <leafValues>
            -8.7815570831298828e-01 2.6035162806510925e-01</leafValues></_>
        <_>
          <internalNodes>
            0 -1 78 5.6500472128391266e-03</internalNodes>
          <leafValues>
            1.7585486173629761e-01 -9.5045697689056396e-01</leafValues></_></weakClassifiers></_>
    <!-- stage 7 -->
    <_>
      <maxWeakCount>9</maxWeakCount>
      <stageThreshold>-1.4873355627059937e+00</stageThreshold>
      <weakClassifiers>
        <_>
          <internalNodes>
            0 -1 90 1.1165268719196320e-01</internalNodes>
          <leafValues>
            -7.9030442237854004e-01 1.5573769807815552e-01</leafValues></_>
        <_>
          <internalNodes>
            0 -1 4 -2.0533451437950134e-01</internalNodes>
          <leafValues>
            4.9011737108230591e-01 -4.8001307249069214e-01</leafValues></_>
        <_>
          <internalNodes>
            0 -1 94 4.6919201849959791e-04</internalNodes>
          <leafValues>
            -4.9660643935203552e-01 3.5792717337608337e-01</leafValues></_>
        <_>
          <internalNodes>
            0 -1 115 -1.8567506223917007e-02</internalNodes>
          <leafValues>
            8.5331636667251587e-01 -2.3093670606613159e-01</leafValues></_>
        <_>
          <internalNodes>
            0 -1 114 9.4694234430789948e-03</internalNodes>
          <leafValues>
            -2.3066496849060059e-01 7.8575700521469116e-01</leafValues></_>
        <_>
          <internalNodes>
            0 -1 13 -5.8320574462413788e-03</internalNodes>
          <leafValues>
            -9.5372509956359863e-01 2.3117341101169586e-01</leafValues></_>
        <_>
          <internalNodes>
            0 -1 12 4.9564144574105740e-03</internalNodes>
          <leafValues>
            2.1667230129241943e-01 -9.2979353666305542e-01</leafValues></_>
        <_>
          <internalNodes>
            0 -1 81 -1.6347996890544891e-02</internalNodes>
          <leafValues>
            8.4893578290939331e-01 -2.6589217782020569e-01</leafValues></_>
        <_>
          <internalNodes>
            0 -1 79 8.0948192626237869e-03</internalNodes>
          <leafValues>
            -2.9529705643653870e-01 6.2103819847106934e-01</leafValues></_></weakClassifiers></_>
    <!-- stage 8 -->
    <_>
      <maxWeakCount>8</maxWeakCount>
      <stageThreshold>-1.5324698686599731e+00</stageThreshold>
      <weakClassifiers>
        <_>
          <internalNodes>
            0 -1 64 -7.0870235562324524e-02</internalNodes>
          <leafValues>
            -4.6224961988627911e-03 -8.5674929618835449e-01</leafValues></_>
        <_>
          <internalNodes>
            0 -1 52 1.8971130251884460e-02</internalNodes>
          <leafValues>
            -3.6167043447494507e-01 7.7230000495910645e-01</leafValues></_>
        <_>
          <internalNodes>
            0 -1 57 1.6830394044518471e-02</internalNodes>
          <leafValues>
            -2.3536619544029236e-01 8.8575905561447144e-01</leafValues></_>
        <_>
          <internalNodes>
            0 -1 1 5.8768386224983260e-05</internalNodes>
          <leafValues>
            -6.4235669374465942e-01 3.3692046999931335e-01</leafValues></_>
        <_>
          <internalNodes>
            0 -1 83 -1.1436274275183678e-02</internalNodes>
          <leafValues>
            8.2587623596191406e-01 -2.0789599418640137e-01</leafValues></_>
        <_>
          <internalNodes>
            0 -1 84 1.0057059116661549e-03</internalNodes>
          <leafValues>
            -5.8461731672286987e-01 3.4228098392486572e-01</leafValues></_>
        <_>
          <internalNodes>
            0 -1 86 -1.2675123289227486e-02</internalNodes>
          <leafValues>
            7.8233879804611206e-01 -2.6895213127136230e-01</leafValues></_>
        <_>
          <internalNodes>
            0 -1 99 -5.7582985609769821e-03</internalNodes>
          <leafValues>
            6.9823998212814331e-01 -2.4881972372531891e-01</leafValues></_></weakClassifiers></_>
    <!-- stage 9 -->
    <_>
      <maxWeakCount>7</maxWeakCount>
      <stageThreshold>-1.3237391710281372e+00</stageThreshold>
      <weakClassifiers>
        <_>
          <internalNodes>
            0 -1 47 -8.1471487879753113e-02</internalNodes>
          <leafValues>
            1.7466410994529724e-01 -8.3840751647949219e-01</leafValues></_>
        <_>
          <internalNodes>
            0 -1 113 7.2442241013050079e-02</internalNodes>
          <leafValues>
            -5.4408156871795654e-01 4.0909537672996521e-01</leafValues></_>
        <_>
          <internalNodes>
            0 -1 56 -6.8943193182349205e-03</internalNodes>
          <leafValues>
            -9.7094982862472534e-01 1.5599487721920013e-01</leafValues></_>
        <_>
          <internalNodes>
            0 -1 25 -2.7821857947856188e-03</internalNodes>
          <leafValues>
            -8.8180524110794067e-01 1.7515793442726135e-01</leafValues></_>
        <_>
          <internalNodes>
            0 -1 117 -7.5909043662250042e-03</internalNodes>
          <leafValues>
            7.8881180286407471e-01 -2.5371143221855164e-01</leafValues></_>
        <_>
          <internalNodes>
            0 -1 111 1.9870201125741005e-02</internalNodes>
          <leafValues>
            -1.8421767652034760e-01 8.4045946598052979e-01</leafValues></_>
        <_>
          <internalNodes>
            0 -1 32 2.0689878147095442e-03</internalNodes>
          <leafValues>
            2.8469327092170715e-01 -7.8765076398849487e-01</leafValues></_></weakClassifiers></_>
    <!-- stage 10 -->
    <_>
      <maxWeakCount>8</maxWeakCount>
      <stageThreshold>-1.2817407846450806e+00</stageThreshold>
      <weakClassifiers>
        <_>
          <internalNodes>
            0 -1 116 -2.0786106586456299e-02</internalNodes>
          <leafValues>
            8.2113820314407349e-01 -5.7987219095230103e-01</leafValues></_>
        <_>
          <internalNodes>
            0 -1 107 -6.6410214640200138e-03</internalNodes>
          <leafValues>
            7.0292639732360840e-01 -4.2428490519523621e-01</leafValues></_>
        <_>
          <internalNodes>
            0 -1 7 -4.9035977572202682e-02</internalNodes>
          <leafValues>
            3.8475954532623291e-01 -6.1839991807937622e-01</leafValues></_>
        <_>
          <internalNodes>
            0 -1 128 -2.7860905975103378e-03</internalNodes>
          <leafValues>
            2.9338696599006653e-01 -5.7831591367721558e-01</leafValues></_>
        <_>
          <internalNodes>
            0 -1 110 6.0316750023048371e-05</internalNodes>
          <leafValues>
            -5.6730723381042480e-01 3.0443885922431946e-01</leafValues></_>
        <_>
          <internalNodes>
            0 -1 89 2.0471982657909393e-02</internalNodes>
          <leafValues>
            -2.3486143350601196e-01 8.4877938032150269e-01</leafValues></_>
        <_>
          <internalNodes>
            0 -1 30 -3.9634765125811100e-03</internalNodes>
          <leafValues>
            -8.7036234140396118e-01 2.1173907816410065e-01</leafValues></_>
        <_>
          <internalNodes>
            0 -1 69 -2.2055052220821381e-02</internalNodes>
          <leafValues>
            7.5371146202087402e-01 -2.3388725519180298e-01</leafValues></_></weakClassifiers></_>
    <!-- stage 11 -->
    <_>
      <maxWeakCount>8</maxWeakCount>
      <stageThreshold>-1.1080390214920044e+00</stageThreshold>
      <weakClassifiers>
        <_>
          <internalNodes>
            0 -1 60 -2.4894682690501213e-02</internalNodes>
          <leafValues>
            6.1490684747695923e-01 -5.9637564420700073e-01</leafValues></_>
        <_>
          <internalNodes>
            0 -1 17 2.6450339704751968e-02</internalNodes>
          <leafValues>
            -4.4693163037300110e-01 4.3717822432518005e-01</leafValues></_>
        <_>
          <internalNodes>
            0 -1 73 -1.6527719795703888e-02</internalNodes>
          <leafValues>
            6.9262546300888062e-01 -2.7951869368553162e-01</leafValues></_>
        <_>
          <internalNodes>
            0 -1 36 9.8220618383493274e-05</internalNodes>
          <leafValues>
            -5.4984986782073975e-01 3.8217750191688538e-01</leafValues></_>
        <_>
          <internalNodes>
            0 -1 21 4.7584176063537598e-03</internalNodes>
          <leafValues>
            2.2182540595531464e-01 -7.5526845455169678e-01</leafValues></_>
        <_>
          <internalNodes>
            0 -1 119 -1.4385349117219448e-02</internalNodes>
          <leafValues>
            2.1755012869834900e-01 -7.7242869138717651e-01</leafValues></_>
        <_>
          <internalNodes>
            0 -1 16 2.0156320533715189e-04</internalNodes>
          <leafValues>
            -6.0250902175903320e-01 2.2154504060745239e-01</leafValues></_>
        <_>
          <internalNodes>
            0 -1 11 -3.4592621959745884e-03</internalNodes>
          <leafValues>
            -9.6007978916168213e-01 1.6166773438453674e-01</leafValues></_></weakClassifiers></_>
    <!-- stage 12 -->
    <_>
      <maxWeakCount>10</maxWeakCount>
      <stageThreshold>-1.4663218259811401e+00</stageThreshold>
      <weakClassifiers>
        <_>
          <internalNodes>
            0 -1 71 2.5561068207025528e-02</internalNodes>
          <leafValues>
            -5.8259469270706177e-01 7.3134326934814453e-01</leafValues></_>
        <_>
          <internalNodes>
            0 -1 86 -1.4534018933773041e-02</internalNodes>
          <leafValues>
            7.4788165092468262e-01 -2.9599365592002869e-01</leafValues></_>
        <_>
          <internalNodes>
            0 -1 53 -1.4449165202677250e-02</internalNodes>
          <leafValues>
            8.0982685089111328e-01 -1.8673434853553772e-01</leafValues></_>
        <_>
          <internalNodes>
            0 -1 28 -8.7629549205303192e-02</internalNodes>
          <leafValues>
            3.6684113740921021e-01 -4.7535762190818787e-01</leafValues></_>
        <_>
          <internalNodes>
            0 -1 49 9.8778086248785257e-04</internalNodes>
          <leafValues>
            -6.1015772819519043e-01 2.6993125677108765e-01</leafValues></_>
        <_>
          <internalNodes>
            0 -1 10 6.3481815159320831e-03</internalNodes>
          <leafValues>
            1.6083857417106628e-01 -9.1610687971115112e-01</leafValues></_>
        <_>
          <internalNodes>
            0 -1 102 2.9800219461321831e-02</internalNodes>
          <leafValues>
            -1.8582586944103241e-01 9.4351512193679810e-01</leafValues></_>
        <_>
          <internalNodes>
            0 -1 24 1.0335708793718368e-04</internalNodes>
          <leafValues>
            -6.2177544832229614e-01 2.9265815019607544e-01</leafValues></_>
        <_>
          <internalNodes>
            0 -1 2 -1.0610019788146019e-02</internalNodes>
          <leafValues>
            2.5700044631958008e-01 -5.7964360713958740e-01</leafValues></_>
        <_>
          <internalNodes>
            0 -1 22 2.8880636673420668e-03</internalNodes>
          <leafValues>
            1.5984487533569336e-01 -7.8392165899276733e-01</leafValues></_></weakClassifiers></_>
    <!-- stage 13 -->
    <_>
      <maxWeakCount>9</maxWeakCount>
      <stageThreshold>-1.6179584264755249e+00</stageThreshold>
      <weakClassifiers>
        <_>
          <internalNodes>
            0 -1 29 -8.1174727529287338e-03</internalNodes>
          <leafValues>
            1.7475728690624237e-01 -7.2377985715866089e-01</leafValues></_>
        <_>
          <internalNodes>
            0 -1 123 2.8500627726316452e-02</internalNodes>
          <leafValues>
            -4.8160943388938904e-01 3.9713639020919800e-01</leafValues></_>
        <_>
          <internalNodes>
            0 -1 77 -1.9960775971412659e-02</internalNodes>
          <leafValues>
            2.2857713699340820e-01 -6.5447849035263062e-01</leafValues></_>
        <_>
          <internalNodes>
            0 -1 134 -4.9698362126946449e-03</internalNodes>
          <leafValues>
            4.0363541245460510e-01 -3.4198710322380066e-01</leafValues></_>
        <_>
          <internalNodes>
            0 -1 129 2.3633355274796486e-02</internalNodes>
          <leafValues>
            -1.9855609536170959e-01 6.7105287313461304e-01</leafValues></_>
        <_>
          <internalNodes>
            0 -1 108 -6.7045050673186779e-03</internalNodes>
          <leafValues>
            -8.3626574277877808e-01 1.8958014249801636e-01</leafValues></_>
        <_>
          <internalNodes>
            0 -1 103 1.5232319012284279e-02</internalNodes>
          <leafValues>
            -1.9961664080619812e-01 8.1428295373916626e-01</leafValues></_>
        <_>
          <internalNodes>
            0 -1 105 -7.4096969328820705e-03</internalNodes>
          <leafValues>
            6.6097921133041382e-01 -2.8898787498474121e-01</leafValues></_>
        <_>
          <internalNodes>
            0 -1 85 1.2553705601021647e-03</internalNodes>
          <leafValues>
            -5.6268268823623657e-01 3.1220430135726929e-01</leafValues></_></weakClassifiers></_>
    <!-- stage 14 -->
    <_>
      <maxWeakCount>11</maxWeakCount>
      <stageThreshold>-1.9167286157608032e+00</stageThreshold>
      <weakClassifiers>
        <_>
          <internalNodes>
            0 -1 112 -3.5123590379953384e-02</internalNodes>
          <leafValues>
            8.5046726465225220e-01 -5.6466877460479736e-01</leafValues></_>
        <_>
          <internalNodes>
            0 -1 121 -1.7706070095300674e-02</internalNodes>
          <leafValues>
            8.2809412479400635e-01 -3.1822478771209717e-01</leafValues></_>
        <_>
          <internalNodes>
            0 -1 132 -7.4427719227969646e-03</internalNodes>
          <leafValues>
            -7.6676988601684570e-01 2.7718803286552429e-01</leafValues></_>
        <_>
          <internalNodes>
            0 -1 126 -1.6453815624117851e-02</internalNodes>
          <leafValues>
            8.0331689119338989e-01 -2.1355961263179779e-01</leafValues></_>
        <_>
          <internalNodes>
            0 -1 37 -3.7737891543656588e-03</internalNodes>
          <leafValues>
            -7.4904495477676392e-01 2.2001630067825317e-01</leafValues></_>
        <_>
          <internalNodes>
            0 -1 41 2.8433329425752163e-03</internalNodes>
          <leafValues>
            -6.8283569812774658e-01 2.1287992596626282e-01</leafValues></_>
        <_>
          <internalNodes>
            0 -1 82 -1.9057583063840866e-02</internalNodes>
          <leafValues>
            8.3731961250305176e-01 -1.8739138543605804e-01</leafValues></_>
        <_>
          <internalNodes>
            0 -1 91 -1.8082670867443085e-02</internalNodes>
          <leafValues>
            2.8361338376998901e-01 -5.5332434177398682e-01</leafValues></_>
        <_>
          <internalNodes>
            0 -1 50 -1.1276079714298248e-01</internalNodes>
          <leafValues>
            -8.1773048639297485e-01 2.1849913895130157e-01</leafValues></_>
        <_>
          <internalNodes>
            0 -1 68 -2.8863200917840004e-02</internalNodes>
          <leafValues>
            8.4200614690780640e-01 -2.3515829443931580e-01</leafValues></_>
        <_>
          <internalNodes>
            0 -1 39 6.0440357774496078e-03</internalNodes>
          <leafValues>
            1.9607648253440857e-01 -8.4856826066970825e-01</leafValues></_></weakClassifiers></_>
    <!-- stage 15 -->
    <_>
      <maxWeakCount>10</maxWeakCount>
      <stageThreshold>-1.4195804595947266e+00</stageThreshold>
      <weakClassifiers>
        <_>
          <internalNodes>
            0 -1 93 -3.1915523111820221e-02</internalNodes>
          <leafValues>
            7.7235770225524902e-01 -5.7507985830307007e-01</leafValues></_>
        <_>
          <internalNodes>
            0 -1 97 1.8563045188784599e-02</internalNodes>
          <leafValues>
            -3.5534697771072388e-01 7.3471486568450928e-01</leafValues></_>
        <_>
          <internalNodes>
            0 -1 23 -7.4583319947123528e-03</internalNodes>
          <leafValues>
            -8.5647547245025635e-01 2.5415903329849243e-01</leafValues></_>
        <_>
          <internalNodes>
            0 -1 46 4.1275698458775878e-04</internalNodes>
          <leafValues>
            -5.9573531150817871e-01 2.7419707179069519e-01</leafValues></_>
        <_>
          <internalNodes>
            0 -1 19 6.4967833459377289e-03</internalNodes>
          <leafValues>
            2.4322058260440826e-01 -7.0397067070007324e-01</leafValues></_>
        <_>
          <internalNodes>
            0 -1 135 -4.4649648480117321e-03</internalNodes>
          <leafValues>
            4.9278295040130615e-01 -3.1322062015533447e-01</leafValues></_>
        <_>
          <internalNodes>
            0 -1 136 8.1546921283006668e-03</internalNodes>
          <leafValues>
            -2.5753265619277954e-01 6.4075314998626709e-01</leafValues></_>
        <_>
          <internalNodes>
            0 -1 55 8.2389349117875099e-03</internalNodes>
          <leafValues>
            -1.2069284170866013e-01 8.0905133485794067e-01</leafValues></_>
        <_>
          <internalNodes>
            0 -1 15 8.2742029917426407e-05</internalNodes>
          <leafValues>
            -3.8356560468673706e-01 3.6938634514808655e-01</leafValues></_>
        <_>
          <internalNodes>
            0 -1 125 -1.5658130869269371e-02</internalNodes>
          <leafValues>
            2.2086939215660095e-01 -5.9619367122650146e-01</leafValues></_></weakClassifiers></_>
    <!-- stage 16 -->
    <_>
      <maxWeakCount>7</maxWeakCount>
      <stageThreshold>-1.6602501869201660e+00</stageThreshold>
      <weakClassifiers>
        <_>
          <internalNodes>
            0 -1 104 -2.5857105851173401e-02</internalNodes>
          <leafValues>
            8.8235294818878174e-01 -5.6166535615921021e-01</leafValues></_>
        <_>
          <internalNodes>
            0 -1 118 -4.7171013429760933e-03</internalNodes>
          <leafValues>
            5.8559906482696533e-01 -4.2703545093536377e-01</leafValues></_>
        <_>
          <internalNodes>
            0 -1 133 -9.8235495388507843e-03</internalNodes>
          <leafValues>
            -7.6221168041229248e-01 2.6219451427459717e-01</leafValues></_>
        <_>
          <internalNodes>
            0 -1 100 3.3455756492912769e-03</internalNodes>
          <leafValues>
            1.5926325321197510e-01 -8.3001887798309326e-01</leafValues></_>
        <_>
          <internalNodes>
            0 -1 75 7.0535931736230850e-03</internalNodes>
          <leafValues>
            -2.3610466718673706e-01 6.6114211082458496e-01</leafValues></_>
        <_>
          <internalNodes>
            0 -1 59 2.3065306246280670e-02</internalNodes>
          <leafValues>
            -1.8867936730384827e-01 8.8097620010375977e-01</leafValues></_>
        <_>
          <internalNodes>
            0 -1 133 5.0197560340166092e-03</internalNodes>
          <leafValues>
            3.2105907797813416e-01 -7.6683998107910156e-01</leafValues></_></weakClassifiers></_>
    <!-- stage 17 -->
    <_>
      <maxWeakCount>11</maxWeakCount>
      <stageThreshold>-1.3309674263000488e+00</stageThreshold>
      <weakClassifiers>
        <_>
          <internalNodes>
            0 -1 80 2.3457717150449753e-02</internalNodes>
          <leafValues>
            -5.6389778852462769e-01 6.5853661298751831e-01</leafValues></_>
        <_>
          <internalNodes>
            0 -1 87 6.3489926978945732e-03</internalNodes>
          <leafValues>
            -4.4349271059036255e-01 4.8213034868240356e-01</leafValues></_>
        <_>
          <internalNodes>
            0 -1 76 2.2437162697315216e-03</internalNodes>
          <leafValues>
            -4.7561714053153992e-01 3.6592507362365723e-01</leafValues></_>
        <_>
          <internalNodes>
            0 -1 8 -9.6379674971103668e-02</internalNodes>
          <leafValues>
            4.3680760264396667e-01 -3.9067929983139038e-01</leafValues></_>
        <_>
          <internalNodes>
            0 -1 18 3.4250987228006124e-03</internalNodes>
          <leafValues>
            2.2003690898418427e-01 -8.9925134181976318e-01</leafValues></_>
        <_>
          <internalNodes>
            0 -1 58 -2.3405615240335464e-02</internalNodes>
          <leafValues>
            6.7697411775588989e-01 -2.4550588428974152e-01</leafValues></_>
        <_>
          <internalNodes>
            0 -1 61 1.9491028040647507e-02</internalNodes>
          <leafValues>
            -1.6890798509120941e-01 8.1970793008804321e-01</leafValues></_>
        <_>
          <internalNodes>
            0 -1 35 8.6131432908587158e-05</internalNodes>
          <leafValues>
            -3.3908239006996155e-01 4.1163784265518188e-01</leafValues></_>
        <_>
          <internalNodes>
            0 -1 96 -2.7051292359828949e-02</internalNodes>
          <leafValues>
            2.9069000482559204e-01 -5.4803282022476196e-01</leafValues></_>
        <_>
          <internalNodes>
            0 -1 67 -3.0041959136724472e-02</internalNodes>
          <leafValues>
            -9.0380930900573730e-01 1.3480071723461151e-01</leafValues></_>
        <_>
          <internalNodes>
            0 -1 27 -2.2769007086753845e-01</internalNodes>
          <leafValues>
            -7.5875926017761230e-01 1.7771393060684204e-01</leafValues></_></weakClassifiers></_>
    <!-- stage 18 -->
    <_>
      <maxWeakCount>11</maxWeakCount>
      <stageThreshold>-1.6863265037536621e+00</stageThreshold>
      <weakClassifiers>
        <_>
          <internalNodes>
            0 -1 98 -1.3720075599849224e-02</internalNodes>
          <leafValues>
            8.1395345926284790e-01 -5.8587479591369629e-01</leafValues></_>
        <_>
          <internalNodes>
            0 -1 101 -6.4742872491478920e-03</internalNodes>
          <leafValues>
            6.4190125465393066e-01 -4.6196922659873962e-01</leafValues></_>
        <_>
          <internalNodes>
            0 -1 5 8.7325042113661766e-03</internalNodes>
          <leafValues>
            2.8044503927230835e-01 -7.9512250423431396e-01</leafValues></_>
        <_>
          <internalNodes>
            0 -1 124 6.5133441239595413e-03</internalNodes>
          <leafValues>
            -2.3403348028659821e-01 7.6595610380172729e-01</leafValues></_>
        <_>
          <internalNodes>
            0 -1 6 -2.5113024748861790e-03</internalNodes>
          <leafValues>
            -6.3992422819137573e-01 2.8999376296997070e-01</leafValues></_>
        <_>
          <internalNodes>
            0 -1 130 7.4116420000791550e-04</internalNodes>
          <leafValues>
            -4.2544570565223694e-01 4.2409774661064148e-01</leafValues></_>
        <_>
          <internalNodes>
            0 -1 127 1.1368760839104652e-02</internalNodes>
          <leafValues>
            -2.2167474031448364e-01 7.3526144027709961e-01</leafValues></_>
        <_>
          <internalNodes>
            0 -1 63 3.6592299584299326e-03</internalNodes>
          <leafValues>
            2.5100302696228027e-01 -6.7006283998489380e-01</leafValues></_>
        <_>
          <internalNodes>
            0 -1 62 -1.6044491901993752e-02</internalNodes>
          <leafValues>
            8.5221546888351440e-01 -2.1442264318466187e-01</leafValues></_>
        <_>
          <internalNodes>
            0 -1 45 6.1681503430008888e-03</internalNodes>
          <leafValues>
            -2.0084986090660095e-01 7.4815011024475098e-01</leafValues></_>
        <_>
          <internalNodes>
            0 -1 40 2.8446377255022526e-03</internalNodes>
          <leafValues>
            -3.0021807551383972e-01 5.3955674171447754e-01</leafValues></_></weakClassifiers></_></stages>
  <features>
    <_>
      <rects>
        <_>
          0 0 1 24 -1.</_>
        <_>
          0 8 1 8 3.</_></rects>
      <tilted>0</tilted></_>
    <_>
      <rects>
        <_>
          0 0 4 4 -1.</_>
        <_>
          2 0 2 4 2.</_></rects>
      <tilted>0</tilted></_>
    <_>
      <rects>
        <_>
          0 0 10 14 -1.</_>
        <_>
          0 0 5 7 2.</_>
        <_>
          5 7 5 7 2.</_></rects>
      <tilted>0</tilted></_>
    <_>
      <rects>
        <_>
          0 0 20 2 -1.</_>
        <_>
          10 0 10 2 2.</_></rects>
      <tilted>0</tilted></_>
    <_>
      <rects>
        <_>
          0 0 20 12 -1.</_>
        <_>
          0 6 20 6 2.</_></rects>
      <tilted>0</tilted></_>
    <_>
      <rects>
        <_>
          0 1 2 20 -1.</_>
        <_>
          1 1 1 20 2.</_></rects>
      <tilted>0</tilted></_>
    <_>
      <rects>
        <_>
          0 1 15 1 -1.</_>
        <_>
          5 1 5 1 3.</_></rects>
      <tilted>0</tilted></_>
    <_>
      <rects>
        <_>
          0 1 11 21 -1.</_>
        <_>
          0 8 11 7 3.</_></rects>
      <tilted>0</tilted></_>
    <_>
      <rects>
        <_>
          0 1 14 10 -1.</_>
        <_>
          0 6 14 5 2.</_></rects>
      <tilted>0</tilted></_>
    <_>
      <rects>
        <_>
          0 1 18 18 -1.</_>
        <_>
          0 7 18 6 3.</_></rects>
      <tilted>0</tilted></_>
    <_>
      <rects>
        <_>
          0 2 2 18 -1.</_>
        <_>
          0 8 2 6 3.</_></rects>
      <tilted>0</tilted></_>
    <_>
      <rects>
        <_>
          0 3 1 12 -1.</_>
        <_>
          0 7 1 4 3.</_></rects>
      <tilted>0</tilted></_>
    <_>
      <rects>
        <_>
          0 3 1 21 -1.</_>
        <_>
          0 10 1 7 3.</_></rects>
      <tilted>0</tilted></_>
    <_>
      <rects>
        <_>
          0 4 1 18 -1.</_>
        <_>
          0 10 1 6 3.</_></rects>
      <tilted>0</tilted></_>
    <_>
      <rects>
        <_>
          0 4 24 12 -1.</_>
        <_>
          8 4 8 12 3.</_></rects>
      <tilted>0</tilted></_>
    <_>
      <rects>
        <_>
          0 8 2 1 -1.</_>
        <_>
          1 8 1 1 2.</_></rects>
      <tilted>0</tilted></_>
    <_>
      <rects>
        <_>
          0 8 2 10 -1.</_>
        <_>
          1 8 1 10 2.</_></rects>
      <tilted>0</tilted></_>
    <_>
      <rects>
        <_>
          0 8 8 16 -1.</_>
        <_>
          0 8 4 8 2.</_>
        <_>
          4 16 4 8 2.</_></rects>
      <tilted>0</tilted></_>
    <_>
      <rects>
        <_>
          0 9 1 15 -1.</_>
        <_>
          0 14 1 5 3.</_></rects>
      <tilted>0</tilted></_>
    <_>
      <rects>
        <_>
          0 9 14 3 -1.</_>
        <_>
          7 9 7 3 2.</_></rects>
      <tilted>0</tilted></_>
    <_>
      <rects>
        <_>
          0 10 2 2 -1.</_>
        <_>
          1 10 1 2 2.</_></rects>
      <tilted>0</tilted></_>
    <_>
      <rects>
        <_>
          0 17 12 2 -1.</_>
        <_>
          4 17 4 2 3.</_></rects>
      <tilted>0</tilted></_>
    <_>
      <rects>
        <_>
          0 19 10 4 -1.</_>
        <_>
          0 19 5 2 2.</_>
        <_>
          5 21 5 2 2.</_></rects>
      <tilted>0</tilted></_>
    <_>
      <rects>
        <_>
          0 20 20 4 -1.</_>
        <_>
          0 20 10 2 2.</_>
        <_>
          10 22 10 2 2.</_></rects>
      <tilted>0</tilted></_>
    <_>
      <rects>
        <_>
          0 21 4 3 -1.</_>
        <_>
          2 21 2 3 2.</_></rects>
      <tilted>0</tilted></_>
    <_>
      <rects>
        <_>
          0 23 12 1 -1.</_>
        <_>
          4 23 4 1 3.</_></rects>
      <tilted>0</tilted></_>
    <_>
      <rects>
        <_>
          1 0 23 24 -1.</_>
        <_>
          1 8 23 8 3.</_></rects>
      <tilted>0</tilted></_>
    <_>
      <rects>
        <_>
          1 3 18 19 -1.</_>
        <_>
          7 3 6 19 3.</_></rects>
      <tilted>0</tilted></_>
    <_>
      <rects>
        <_>
          1 7 21 8 -1.</_>
        <_>
          8 7 7 8 3.</_></rects>
      <tilted>0</tilted></_>
    <_>
      <rects>
        <_>
          1 8 6 8 -1.</_>
        <_>
          4 8 3 8 2.</_></rects>
      <tilted>0</tilted></_>
    <_>
      <rects>
        <_>
          1 15 3 9 -1.</_>
        <_>
          1 18 3 3 3.</_></rects>
      <tilted>0</tilted></_>
    <_>
      <rects>
        <_>
          1 22 10 1 -1.</_>
        <_>
          6 22 5 1 2.</_></rects>
      <tilted>0</tilted></_>
    <_>
      <rects>
        <_>
          1 23 9 1 -1.</_>
        <_>
          4 23 3 1 3.</_></rects>
      <tilted>0</tilted></_>
    <_>
      <rects>
        <_>
          2 1 8 2 -1.</_>
        <_>
          6 1 4 2 2.</_></rects>
      <tilted>0</tilted></_>
    <_>
      <rects>
        <_>
          2 1 15 18 -1.</_>
        <_>
          2 7 15 6 3.</_></rects>
      <tilted>0</tilted></_>
    <_>
      <rects>
        <_>
          2 9 2 2 -1.</_>
        <_>
          3 9 1 2 2.</_></rects>
      <tilted>0</tilted></_>
    <_>
      <rects>
        <_>
          2 18 4 2 -1.</_>
        <_>
          4 18 2 2 2.</_></rects>
      <tilted>0</tilted></_>
    <_>
      <rects>
        <_>
          2 21 9 3 -1.</_>
        <_>
          5 21 3 3 3.</_></rects>
      <tilted>0</tilted></_>
    <_>
      <rects>
        <_>
          3 0 15 21 -1.</_>
        <_>
          3 7 15 7 3.</_></rects>
      <tilted>0</tilted></_>
    <_>
      <rects>
        <_>
          3 20 20 4 -1.</_>
        <_>
          3 20 10 2 2.</_>
        <_>
          13 22 10 2 2.</_></rects>
      <tilted>0</tilted></_>
    <_>
      <rects>
        <_>
          4 6 2 18 -1.</_>
        <_>
          5 6 1 18 2.</_></rects>
      <tilted>0</tilted></_>
    <_>
      <rects>
        <_>
          5 0 16 1 -1.</_>
        <_>
          13 0 8 1 2.</_></rects>
      <tilted>0</tilted></_>
    <_>
      <rects>
        <_>
          5 0 12 24 -1.</_>
        <_>
          5 8 12 8 3.</_></rects>
      <tilted>0</tilted></_>
    <_>
      <rects>
        <_>
          5 3 12 18 -1.</_>
        <_>
          5 9 12 6 3.</_></rects>
      <tilted>0</tilted></_>
    <_>
      <rects>
        <_>
          5 5 3 13 -1.</_>
        <_>
          6 5 1 13 3.</_></rects>
      <tilted>0</tilted></_>
    <_>
      <rects>
        <_>
          5 12 15 3 -1.</_>
        <_>
          5 13 15 1 3.</_></rects>
      <tilted>0</tilted></_>
    <_>
      <rects>
        <_>
          5 20 6 2 -1.</_>
        <_>
          8 20 3 2 2.</_></rects>
      <tilted>0</tilted></_>
    <_>
      <rects>
        <_>
          6 0 5 21 -1.</_>
        <_>
          6 7 5 7 3.</_></rects>
      <tilted>0</tilted></_>
    <_>
      <rects>
        <_>
          6 0 9 21 -1.</_>
        <_>
          6 7 9 7 3.</_></rects>
      <tilted>0</tilted></_>
    <_>
      <rects>
        <_>
          6 1 8 2 -1.</_>
        <_>
          10 1 4 2 2.</_></rects>
      <tilted>0</tilted></_>
    <_>
      <rects>
        <_>
          6 2 12 18 -1.</_>
        <_>
          10 2 4 18 3.</_></rects>
      <tilted>0</tilted></_>
    <_>
      <rects>
        <_>
          6 3 18 11 -1.</_>
        <_>
          15 3 9 11 2.</_></rects>
      <tilted>0</tilted></_>
    <_>
      <rects>
        <_>
          6 4 3 12 -1.</_>
        <_>
          7 4 1 12 3.</_></rects>
      <tilted>0</tilted></_>
    <_>
      <rects>
        <_>
          6 5 3 11 -1.</_>
        <_>
          7 5 1 11 3.</_></rects>
      <tilted>0</tilted></_>
    <_>
      <rects>
        <_>
          6 6 3 12 -1.</_>
        <_>
          7 6 1 12 3.</_></rects>
      <tilted>0</tilted></_>
    <_>
      <rects>
        <_>
          6 9 2 7 -1.</_>
        <_>
          7 9 1 7 2.</_></rects>
      <tilted>0</tilted></_>
    <_>
      <rects>
        <_>
          6 20 9 4 -1.</_>
        <_>
          9 20 3 4 3.</_></rects>
      <tilted>0</tilted></_>
    <_>
      <rects>
        <_>
          7 1 3 14 -1.</_>
        <_>
          8 1 1 14 3.</_></rects>
      <tilted>0</tilted></_>
    <_>
      <rects>
        <_>
          7 3 3 15 -1.</_>
        <_>
          8 3 1 15 3.</_></rects>
      <tilted>0</tilted></_>
    <_>
      <rects>
        <_>
          7 4 3 12 -1.</_>
        <_>
          8 4 1 12 3.</_></rects>
      <tilted>0</tilted></_>
    <_>
      <rects>
        <_>
          7 5 3 18 -1.</_>
        <_>
          8 5 1 18 3.</_></rects>
      <tilted>0</tilted></_>
    <_>
      <rects>
        <_>
          7 6 3 8 -1.</_>
        <_>
          8 6 1 8 3.</_></rects>
      <tilted>0</tilted></_>
    <_>
      <rects>
        <_>
          7 10 3 9 -1.</_>
        <_>
          8 10 1 9 3.</_></rects>
      <tilted>0</tilted></_>
    <_>
      <rects>
        <_>
          7 21 9 3 -1.</_>
        <_>
          10 21 3 3 3.</_></rects>
      <tilted>0</tilted></_>
    <_>
      <rects>
        <_>
          8 0 4 21 -1.</_>
        <_>
          8 7 4 7 3.</_></rects>
      <tilted>0</tilted></_>
    <_>
      <rects>
        <_>
          8 1 12 2 -1.</_>
        <_>
          12 1 4 2 3.</_></rects>
      <tilted>0</tilted></_>
    <_>
      <rects>
        <_>
          8 1 7 21 -1.</_>
        <_>
          8 8 7 7 3.</_></rects>
      <tilted>0</tilted></_>
    <_>
      <rects>
        <_>
          8 2 8 11 -1.</_>
        <_>
          12 2 4 11 2.</_></rects>
      <tilted>0</tilted></_>
    <_>
      <rects>
        <_>
          8 3 3 13 -1.</_>
        <_>
          9 3 1 13 3.</_></rects>
      <tilted>0</tilted></_>
    <_>
      <rects>
        <_>
          8 4 3 13 -1.</_>
        <_>
          9 4 1 13 3.</_></rects>
      <tilted>0</tilted></_>
    <_>
      <rects>
        <_>
          8 4 16 11 -1.</_>
        <_>
          16 4 8 11 2.</_></rects>
      <tilted>0</tilted></_>
    <_>
      <rects>
        <_>
          8 6 3 10 -1.</_>
        <_>
          9 6 1 10 3.</_></rects>
      <tilted>0</tilted></_>
    <_>
      <rects>
        <_>
          8 7 3 12 -1.</_>
        <_>
          9 7 1 12 3.</_></rects>
      <tilted>0</tilted></_>
    <_>
      <rects>
        <_>
          8 8 3 6 -1.</_>
        <_>
          9 8 1 6 3.</_></rects>
      <tilted>0</tilted></_>
    <_>
      <rects>
        <_>
          8 8 16 7 -1.</_>
        <_>
          16 8 8 7 2.</_></rects>
      <tilted>0</tilted></_>
    <_>
      <rects>
        <_>
          8 10 3 3 -1.</_>
        <_>
          9 10 1 3 3.</_></rects>
      <tilted>0</tilted></_>
    <_>
      <rects>
        <_>
          8 19 8 3 -1.</_>
        <_>
          12 19 4 3 2.</_></rects>
      <tilted>0</tilted></_>
    <_>
      <rects>
        <_>
          9 0 2 21 -1.</_>
        <_>
          9 7 2 7 3.</_></rects>
      <tilted>0</tilted></_>
    <_>
      <rects>
        <_>
          9 2 12 1 -1.</_>
        <_>
          13 2 4 1 3.</_></rects>
      <tilted>0</tilted></_>
    <_>
      <rects>
        <_>
          9 5 3 12 -1.</_>
        <_>
          10 5 1 12 3.</_></rects>
      <tilted>0</tilted></_>
    <_>
      <rects>
        <_>
          9 6 3 7 -1.</_>
        <_>
          10 6 1 7 3.</_></rects>
      <tilted>0</tilted></_>
    <_>
      <rects>
        <_>
          9 6 3 11 -1.</_>
        <_>
          10 6 1 11 3.</_></rects>
      <tilted>0</tilted></_>
    <_>
      <rects>
        <_>
          9 7 3 7 -1.</_>
        <_>
          10 7 1 7 3.</_></rects>
      <tilted>0</tilted></_>
    <_>
      <rects>
        <_>
          9 8 3 6 -1.</_>
        <_>
          10 8 1 6 3.</_></rects>
      <tilted>0</tilted></_>
    <_>
      <rects>
        <_>
          9 18 6 5 -1.</_>
        <_>
          12 18 3 5 2.</_></rects>
      <tilted>0</tilted></_>
    <_>
      <rects>
        <_>
          10 0 12 1 -1.</_>
        <_>
          16 0 6 1 2.</_></rects>
      <tilted>0</tilted></_>
    <_>
      <rects>
        <_>
          10 6 3 7 -1.</_>
        <_>
          11 6 1 7 3.</_></rects>
      <tilted>0</tilted></_>
    <_>
      <rects>
        <_>
          10 6 2 9 -1.</_>
        <_>
          11 6 1 9 2.</_></rects>
      <tilted>0</tilted></_>
    <_>
      <rects>
        <_>
          10 7 3 7 -1.</_>
        <_>
          11 7 1 7 3.</_></rects>
      <tilted>0</tilted></_>
    <_>
      <rects>
        <_>
          10 7 3 11 -1.</_>
        <_>
          11 7 1 11 3.</_></rects>
      <tilted>0</tilted></_>
    <_>
      <rects>
        <_>
          10 7 14 8 -1.</_>
        <_>
          17 7 7 8 2.</_></rects>
      <tilted>0</tilted></_>
    <_>
      <rects>
        <_>
          10 10 12 14 -1.</_>
        <_>
          10 10 6 7 2.</_>
        <_>
          16 17 6 7 2.</_></rects>
      <tilted>0</tilted></_>
    <_>
      <rects>
        <_>
          10 10 14 14 -1.</_>
        <_>
          10 10 7 7 2.</_>
        <_>
          17 17 7 7 2.</_></rects>
      <tilted>0</tilted></_>
    <_>
      <rects>
        <_>
          11 1 3 16 -1.</_>
        <_>
          12 1 1 16 3.</_></rects>
      <tilted>0</tilted></_>
    <_>
      <rects>
        <_>
          11 1 6 2 -1.</_>
        <_>
          14 1 3 2 2.</_></rects>
      <tilted>0</tilted></_>
    <_>
      <rects>
        <_>
          11 2 3 15 -1.</_>
        <_>
          12 2 1 15 3.</_></rects>
      <tilted>0</tilted></_>
    <_>
      <rects>
        <_>
          11 2 2 21 -1.</_>
        <_>
          11 9 2 7 3.</_></rects>
      <tilted>0</tilted></_>
    <_>
      <rects>
        <_>
          11 4 3 10 -1.</_>
        <_>
          12 4 1 10 3.</_></rects>
      <tilted>0</tilted></_>
    <_>
      <rects>
        <_>
          11 6 3 5 -1.</_>
        <_>
          12 6 1 5 3.</_></rects>
      <tilted>0</tilted></_>
    <_>
      <rects>
        <_>
          11 9 3 5 -1.</_>
        <_>
          12 9 1 5 3.</_></rects>
      <tilted>0</tilted></_>
    <_>
      <rects>
        <_>
          12 0 12 1 -1.</_>
        <_>
          16 0 4 1 3.</_></rects>
      <tilted>0</tilted></_>
    <_>
      <rects>
        <_>
          12 6 3 6 -1.</_>
        <_>
          13 6 1 6 3.</_></rects>
      <tilted>0</tilted></_>
    <_>
      <rects>
        <_>
          12 6 3 13 -1.</_>
        <_>
          13 6 1 13 3.</_></rects>
      <tilted>0</tilted></_>
    <_>
      <rects>
        <_>
          12 7 3 8 -1.</_>
        <_>
          13 7 1 8 3.</_></rects>
      <tilted>0</tilted></_>
    <_>
      <rects>
        <_>
          12 7 3 9 -1.</_>
        <_>
          13 7 1 9 3.</_></rects>
      <tilted>0</tilted></_>
    <_>
      <rects>
        <_>
          12 8 3 7 -1.</_>
        <_>
          13 8 1 7 3.</_></rects>
      <tilted>0</tilted></_>
    <_>
      <rects>
        <_>
          12 8 12 11 -1.</_>
        <_>
          18 8 6 11 2.</_></rects>
      <tilted>0</tilted></_>
    <_>
      <rects>
        <_>
          12 9 3 4 -1.</_>
        <_>
          13 9 1 4 3.</_></rects>
      <tilted>0</tilted></_>
    <_>
      <rects>
        <_>
          12 19 12 3 -1.</_>
        <_>
          16 19 4 3 3.</_></rects>
      <tilted>0</tilted></_>
    <_>
      <rects>
        <_>
          13 0 2 12 -1.</_>
        <_>
          13 6 2 6 2.</_></rects>
      <tilted>0</tilted></_>
    <_>
      <rects>
        <_>
          13 0 6 2 -1.</_>
        <_>
          16 0 3 2 2.</_></rects>
      <tilted>0</tilted></_>
    <_>
      <rects>
        <_>
          13 1 3 19 -1.</_>
        <_>
          14 1 1 19 3.</_></rects>
      <tilted>0</tilted></_>
    <_>
      <rects>
        <_>
          13 3 3 12 -1.</_>
        <_>
          14 3 1 12 3.</_></rects>
      <tilted>0</tilted></_>
    <_>
      <rects>
        <_>
          13 6 10 9 -1.</_>
        <_>
          18 6 5 9 2.</_></rects>
      <tilted>0</tilted></_>
    <_>
      <rects>
        <_>
          13 7 3 7 -1.</_>
        <_>
          14 7 1 7 3.</_></rects>
      <tilted>0</tilted></_>
    <_>
      <rects>
        <_>
          13 7 3 9 -1.</_>
        <_>
          14 7 1 9 3.</_></rects>
      <tilted>0</tilted></_>
    <_>
      <rects>
        <_>
          13 8 3 6 -1.</_>
        <_>
          14 8 1 6 3.</_></rects>
      <tilted>0</tilted></_>
    <_>
      <rects>
        <_>
          13 9 3 3 -1.</_>
        <_>
          14 9 1 3 3.</_></rects>
      <tilted>0</tilted></_>
    <_>
      <rects>
        <_>
          13 10 3 3 -1.</_>
        <_>
          14 10 1 3 3.</_></rects>
      <tilted>0</tilted></_>
    <_>
      <rects>
        <_>
          14 0 9 24 -1.</_>
        <_>
          14 8 9 8 3.</_></rects>
      <tilted>0</tilted></_>
    <_>
      <rects>
        <_>
          14 3 3 15 -1.</_>
        <_>
          15 3 1 15 3.</_></rects>
      <tilted>0</tilted></_>
    <_>
      <rects>
        <_>
          14 6 3 9 -1.</_>
        <_>
          15 6 1 9 3.</_></rects>
      <tilted>0</tilted></_>
    <_>
      <rects>
        <_>
          14 8 3 6 -1.</_>
        <_>
          15 8 1 6 3.</_></rects>
      <tilted>0</tilted></_>
    <_>
      <rects>
        <_>
          14 8 10 3 -1.</_>
        <_>
          19 8 5 3 2.</_></rects>
      <tilted>0</tilted></_>
    <_>
      <rects>
        <_>
          14 10 3 4 -1.</_>
        <_>
          15 10 1 4 3.</_></rects>
      <tilted>0</tilted></_>
    <_>
      <rects>
        <_>
          15 0 9 21 -1.</_>
        <_>
          15 7 9 7 3.</_></rects>
      <tilted>0</tilted></_>
    <_>
      <rects>
        <_>
          15 6 3 11 -1.</_>
        <_>
          16 6 1 11 3.</_></rects>
      <tilted>0</tilted></_>
    <_>
      <rects>
        <_>
          15 7 3 6 -1.</_>
        <_>
          16 7 1 6 3.</_></rects>
      <tilted>0</tilted></_>
    <_>
      <rects>
        <_>
          15 9 8 12 -1.</_>
        <_>
          15 9 4 6 2.</_>
        <_>
          19 15 4 6 2.</_></rects>
      <tilted>0</tilted></_>
    <_>
      <rects>
        <_>
          18 1 6 16 -1.</_>
        <_>
          18 9 6 8 2.</_></rects>
      <tilted>0</tilted></_>
    <_>
      <rects>
        <_>
          19 0 4 3 -1.</_>
        <_>
          21 0 2 3 2.</_></rects>
      <tilted>0</tilted></_>
    <_>
      <rects>
        <_>
          20 1 4 18 -1.</_>
        <_>
          20 7 4 6 3.</_></rects>
      <tilted>0</tilted></_>
    <_>
      <rects>
        <_>
          21 1 3 12 -1.</_>
        <_>
          21 5 3 4 3.</_></rects>
      <tilted>0</tilted></_>
    <_>
      <rects>
        <_>
          22 4 2 18 -1.</_>
        <_>
          22 10 2 6 3.</_></rects>
      <tilted>0</tilted></_>
    <_>
      <rects>
        <_>
          22 7 2 14 -1.</_>
        <_>
          22 14 2 7 2.</_></rects>
      <tilted>0</tilted></_>
    <_>
      <rects>
        <_>
          22 9 2 14 -1.</_>
        <_>
          22 16 2 7 2.</_></rects>
      <tilted>0</tilted></_>
    <_>
      <rects>
        <_>
          23 1 1 18 -1.</_>
        <_>
          23 10 1 9 2.</_></rects>
      <tilted>0</tilted></_>
    <_>
      <rects>
        <_>
          23 8 1 15 -1.</_>
        <_>
          23 13 1 5 3.</_></rects>
      <tilted>0</tilted></_></features></cascade>
</opencv_storage>
