<?xml version="1.0"?>
<opencv_storage>
<cascade>
  <stageType>BOOST</stageType>
  <featureType>HAAR</featureType>
  <height>24</height>
  <width>24</width>
  <stageParams>
    <boostType>GAB</boostType>
    <minHitRate>9.9500000476837158e-01</minHitRate>
    <maxFalseAlarm>5.0000000000000000e-01</maxFalseAlarm>
    <weightTrimRate>9.4999998807907104e-01</weightTrimRate>
    <maxDepth>1</maxDepth>
    <maxWeakCount>100</maxWeakCount></stageParams>
  <featureParams>
    <maxCatCount>0</maxCatCount>
    <featSize>1</featSize>
    <mode>BASIC</mode></featureParams>
  <stageNum>12</stageNum>
  <stages>
    <!-- stage 0 -->
    <_>
      <maxWeakCount>3</maxWeakCount>
      <stageThreshold>-1.1874147653579712e+00</stageThreshold>
      <weakClassifiers>
        <_>
          <internalNodes>
            0 -1 18 -1.0918086767196655e-01</internalNodes>
          <leafValues>
            7.1428573131561279e-01 -9.5673549175262451e-01</leafValues></_>
        <_>
          <internalNodes>
            0 -1 25 1.5514271333813667e-02</internalNodes>
          <leafValues>
            -8.8785076141357422e-01 6.3139516115188599e-01</leafValues></_>
        <_>
          <internalNodes>
            0 -1 28 -6.1446700245141983e-02</internalNodes>
          <leafValues>
            6.5717154741287231e-01 -8.5982429981231689e-01</leafValues></_></weakClassifiers></_>
    <!-- stage 1 -->
    <_>
      <maxWeakCount>3</maxWeakCount>
      <stageThreshold>-1.5175739526748657e+00</stageThreshold>
      <weakClassifiers>
        <_>
          <internalNodes>
            0 -1 20 -4.6965055167675018e-02</internalNodes>
          <leafValues>
            6.8421053886413574e-01 -9.3030011653900146e-01</leafValues></_>
        <_>
          <internalNodes>
            0 -1 44 9.9289976060390472e-02</internalNodes>
          <leafValues>
            -8.9396673440933228e-01 2.6577764749526978e-01</leafValues></_>
        <_>
          <internalNodes>
            0 -1 6 -6.2125600874423981e-02</internalNodes>
          <leafValues>
            4.4234940409660339e-01 -8.5305154323577881e-01</leafValues></_></weakClassifiers></_>
    <!-- stage 2 -->
    <_>
      <maxWeakCount>3</maxWeakCount>
      <stageThreshold>-1.5738831758499146e+00</stageThreshold>
      <weakClassifiers>
        <_>
          <internalNodes>
            0 -1 16 2.4767927825450897e-02</internalNodes>
          <leafValues>
            -9.3592232465744019e-01 7.2727274894714355e-01</leafValues></_>
        <_>
          <internalNodes>
            0 -1 26 -1.5768265351653099e-02</internalNodes>
          <leafValues>
            5.0290602445602417e-01 -7.9974424839019775e-01</leafValues></_>
        <_>
          <internalNodes>
            0 -1 48 -4.6842952724546194e-04</internalNodes>
          <leafValues>
            -9.3579471111297607e-01 1.6178341209888458e-01</leafValues></_></weakClassifiers></_>
    <!-- stage 3 -->
    <_>
      <maxWeakCount>4</maxWeakCount>
      <stageThreshold>-1.7529529333114624e+00</stageThreshold>
      <weakClassifiers>
        <_>
          <internalNodes>
            0 -1 39 -3.1620189547538757e-02</internalNodes>
          <leafValues>
            1. -9.2492783069610596e-01</leafValues></_>
        <_>
          <internalNodes>
            0 -1 21 -2.1998252719640732e-02</internalNodes>
          <leafValues>
            8.0016875267028809e-01 -7.5193482637405396e-01</leafValues></_>
        <_>
          <internalNodes>
            0 -1 27 7.4142375960946083e-03</internalNodes>
          <leafValues>
            -4.9323025345802307e-01 7.5930601358413696e-01</leafValues></_>
        <_>
          <internalNodes>
            0 -1 43 1.1970140039920807e-01</internalNodes>
          <leafValues>
            -7.8719431161880493e-01 4.1714003682136536e-01</leafValues></_></weakClassifiers></_>
    <!-- stage 4 -->
    <_>
      <maxWeakCount>5</maxWeakCount>
      <stageThreshold>-2.1139874458312988e+00</stageThreshold>
      <weakClassifiers>
        <_>
          <internalNodes>
            0 -1 41 -1.5052700415253639e-02</internalNodes>
          <leafValues>
            7.6470589637756348e-01 -9.2850244045257568e-01</leafValues></_>
        <_>
          <internalNodes>
            0 -1 30 6.2723485752940178e-03</internalNodes>
          <leafValues>
            -7.6661431789398193e-01 3.9378795027732849e-01</leafValues></_>
        <_>
          <internalNodes>
            0 -1 4 -3.4641928970813751e-02</internalNodes>
          <leafValues>
            2.0489554107189178e-01 -9.1176807880401611e-01</leafValues></_>
        <_>
          <internalNodes>
            0 -1 1 -4.0267100557684898e-03</internalNodes>
          <leafValues>
            -9.6469622850418091e-01 2.1071004867553711e-01</leafValues></_>
        <_>
          <internalNodes>
            0 -1 10 3.0978517606854439e-03</internalNodes>
          <leafValues>
            2.8218740224838257e-01 -9.3359762430191040e-01</leafValues></_></weakClassifiers></_>
    <!-- stage 5 -->
    <_>
      <maxWeakCount>3</maxWeakCount>
      <stageThreshold>-1.4782229661941528e+00</stageThreshold>
      <weakClassifiers>
        <_>
          <internalNodes>
            0 -1 29 -1.6479734331369400e-02</internalNodes>
          <leafValues>
            1. -9.2307692766189575e-01</leafValues></_>
        <_>
          <internalNodes>
            0 -1 36 9.7494795918464661e-03</internalNodes>
          <leafValues>
            -8.2586425542831421e-01 4.0354603528976440e-01</leafValues></_>
        <_>
          <internalNodes>
            0 -1 3 -4.3218623846769333e-02</internalNodes>
          <leafValues>
            2.7071818709373474e-01 -9.1322726011276245e-01</leafValues></_></weakClassifiers></_>
    <!-- stage 6 -->
    <_>
      <maxWeakCount>5</maxWeakCount>
      <stageThreshold>-1.6728254556655884e+00</stageThreshold>
      <weakClassifiers>
        <_>
          <internalNodes>
            0 -1 38 -2.8577474877238274e-02</internalNodes>
          <leafValues>
            7.5000000000000000e-01 -9.2664092779159546e-01</leafValues></_>
        <_>
          <internalNodes>
            0 -1 11 7.0715755224227905e-02</internalNodes>
          <leafValues>
            -7.3706185817718506e-01 6.7856866121292114e-01</leafValues></_>
        <_>
          <internalNodes>
            0 -1 7 4.8733891162555665e-05</internalNodes>
          <leafValues>
            -6.6495710611343384e-01 3.6169874668121338e-01</leafValues></_>
        <_>
          <internalNodes>
            0 -1 46 1.3355495408177376e-02</internalNodes>
          <leafValues>
            2.7675959467887878e-01 -9.5967632532119751e-01</leafValues></_>
        <_>
          <internalNodes>
            0 -1 13 1.4489586465060711e-04</internalNodes>
          <leafValues>
            -6.1857736110687256e-01 3.7907493114471436e-01</leafValues></_></weakClassifiers></_>
    <!-- stage 7 -->
    <_>
      <maxWeakCount>6</maxWeakCount>
      <stageThreshold>-2.0780098438262939e+00</stageThreshold>
      <weakClassifiers>
        <_>
          <internalNodes>
            0 -1 32 -2.9194919392466545e-02</internalNodes>
          <leafValues>
            7.3333334922790527e-01 -9.2478305101394653e-01</leafValues></_>
        <_>
          <internalNodes>
            0 -1 35 7.5102578848600388e-03</internalNodes>
          <leafValues>
            -7.3649507761001587e-01 6.4138960838317871e-01</leafValues></_>
        <_>
          <internalNodes>
            0 -1 50 -6.3243471086025238e-03</internalNodes>
          <leafValues>
            -8.4866517782211304e-01 1.7870227992534637e-01</leafValues></_>
        <_>
          <internalNodes>
            0 -1 15 7.7257929369807243e-03</internalNodes>
          <leafValues>
            -4.8206493258476257e-01 5.4790925979614258e-01</leafValues></_>
        <_>
          <internalNodes>
            0 -1 42 6.9184442982077599e-03</internalNodes>
          <leafValues>
            -4.0762844681739807e-01 6.6404861211776733e-01</leafValues></_>
        <_>
          <internalNodes>
            0 -1 9 -1.9617357756942511e-03</internalNodes>
          <leafValues>
            -1. 2.9425925016403198e-01</leafValues></_></weakClassifiers></_>
    <!-- stage 8 -->
    <_>
      <maxWeakCount>5</maxWeakCount>
      <stageThreshold>-1.4650530815124512e+00</stageThreshold>
      <weakClassifiers>
        <_>
          <internalNodes>
            0 -1 12 -8.9628577232360840e-02</internalNodes>
          <leafValues>
            7.6470589637756348e-01 -9.2850244045257568e-01</leafValues></_>
        <_>
          <internalNodes>
            0 -1 31 -4.1959591209888458e-02</internalNodes>
          <leafValues>
            7.1742892265319824e-01 -7.2633922100067139e-01</leafValues></_>
        <_>
          <internalNodes>
            0 -1 23 5.5455081164836884e-02</internalNodes>
          <leafValues>
            -3.8667094707489014e-01 8.2490277290344238e-01</leafValues></_>
        <_>
          <internalNodes>
            0 -1 14 -4.8206821084022522e-02</internalNodes>
          <leafValues>
            8.2388097047805786e-01 -3.4916901588439941e-01</leafValues></_>
        <_>
          <internalNodes>
            0 -1 33 -6.6834632307291031e-03</internalNodes>
          <leafValues>
            9.3309980630874634e-01 -2.4742141366004944e-01</leafValues></_></weakClassifiers></_>
    <!-- stage 9 -->
    <_>
      <maxWeakCount>5</maxWeakCount>
      <stageThreshold>-1.9141118526458740e+00</stageThreshold>
      <weakClassifiers>
        <_>
          <internalNodes>
            0 -1 34 -1.4069837518036366e-02</internalNodes>
          <leafValues>
            8.1818181276321411e-01 -9.1930836439132690e-01</leafValues></_>
        <_>
          <internalNodes>
            0 -1 40 -1.0165357030928135e-02</internalNodes>
          <leafValues>
            6.1478382349014282e-01 -6.8035107851028442e-01</leafValues></_>
        <_>
          <internalNodes>
            0 -1 49 1.6103161033242941e-04</internalNodes>
          <leafValues>
            -7.5803852081298828e-01 2.9634818434715271e-01</leafValues></_>
        <_>
          <internalNodes>
            0 -1 0 3.9589470252394676e-03</internalNodes>
          <leafValues>
            2.3347775638103485e-01 -9.8359626531600952e-01</leafValues></_>
        <_>
          <internalNodes>
            0 -1 2 -4.7806967049837112e-03</internalNodes>
          <leafValues>
            -9.7268974781036377e-01 2.1010839939117432e-01</leafValues></_></weakClassifiers></_>
    <!-- stage 10 -->
    <_>
      <maxWeakCount>6</maxWeakCount>
      <stageThreshold>-2.1793794631958008e+00</stageThreshold>
      <weakClassifiers>
        <_>
          <internalNodes>
            0 -1 19 2.2914934903383255e-02</internalNodes>
          <leafValues>
            -9.2492783069610596e-01 1.</leafValues></_>
        <_>
          <internalNodes>
            0 -1 37 -5.9217493981122971e-03</internalNodes>
          <leafValues>
            3.2738113403320313e-01 -7.5168323516845703e-01</leafValues></_>
        <_>
          <internalNodes>
            0 -1 47 5.4646078497171402e-03</internalNodes>
          <leafValues>
            -6.8286347389221191e-01 3.6604705452919006e-01</leafValues></_>
        <_>
          <internalNodes>
            0 -1 8 2.2234000789467245e-04</internalNodes>
          <leafValues>
            -6.3860565423965454e-01 4.4123560190200806e-01</leafValues></_>
        <_>
          <internalNodes>
            0 -1 45 -8.6002677562646568e-05</internalNodes>
          <leafValues>
            5.5603110790252686e-01 -5.2905088663101196e-01</leafValues></_>
        <_>
          <internalNodes>
            0 -1 5 2.1583517082035542e-03</internalNodes>
          <leafValues>
            2.9884114861488342e-01 -1.</leafValues></_></weakClassifiers></_>
    <!-- stage 11 -->
    <_>
      <maxWeakCount>3</maxWeakCount>
      <stageThreshold>-1.4332156181335449e+00</stageThreshold>
      <weakClassifiers>
        <_>
          <internalNodes>
            0 -1 24 1.9358821213245392e-02</internalNodes>
          <leafValues>
            -9.3236714601516724e-01 1.</leafValues></_>
        <_>
          <internalNodes>
            0 -1 17 -6.6775884479284286e-03</internalNodes>
          <leafValues>
            8.3733075857162476e-01 -7.5958496332168579e-01</leafValues></_>
        <_>
          <internalNodes>
            0 -1 22 -4.0645711123943329e-02</internalNodes>
          <leafValues>
            -9.6621435880661011e-01 2.5873640179634094e-01</leafValues></_></weakClassifiers></_></stages>
  <features>
    <_>
      <rects>
        <_>
          0 0 2 15 -1.</_>
        <_>
          0 5 2 5 3.</_></rects>
      <tilted>0</tilted></_>
    <_>
      <rects>
        <_>
          0 0 24 1 -1.</_>
        <_>
          8 0 8 1 3.</_></rects>
      <tilted>0</tilted></_>
    <_>
      <rects>
        <_>
          0 1 2 18 -1.</_>
        <_>
          0 7 2 6 3.</_></rects>
      <tilted>0</tilted></_>
    <_>
      <rects>
        <_>
          0 5 10 12 -1.</_>
        <_>
          5 5 5 12 2.</_></rects>
      <tilted>0</tilted></_>
    <_>
      <rects>
        <_>
          0 7 10 13 -1.</_>
        <_>
          5 7 5 13 2.</_></rects>
      <tilted>0</tilted></_>
    <_>
      <rects>
        <_>
          0 8 2 4 -1.</_>
        <_>
          0 10 2 2 2.</_></rects>
      <tilted>0</tilted></_>
    <_>
      <rects>
        <_>
          0 9 10 11 -1.</_>
        <_>
          5 9 5 11 2.</_></rects>
      <tilted>0</tilted></_>
    <_>
      <rects>
        <_>
          0 14 2 1 -1.</_>
        <_>
          1 14 1 1 2.</_></rects>
      <tilted>0</tilted></_>
    <_>
      <rects>
        <_>
          1 0 1 8 -1.</_>
        <_>
          1 4 1 4 2.</_></rects>
      <tilted>0</tilted></_>
    <_>
      <rects>
        <_>
          1 11 1 12 -1.</_>
        <_>
          1 17 1 6 2.</_></rects>
      <tilted>0</tilted></_>
    <_>
      <rects>
        <_>
          3 0 18 1 -1.</_>
        <_>
          9 0 6 1 3.</_></rects>
      <tilted>0</tilted></_>
    <_>
      <rects>
        <_>
          3 12 13 6 -1.</_>
        <_>
          3 14 13 2 3.</_></rects>
      <tilted>0</tilted></_>
    <_>
      <rects>
        <_>
          3 16 17 6 -1.</_>
        <_>
          3 18 17 2 3.</_></rects>
      <tilted>0</tilted></_>
    <_>
      <rects>
        <_>
          5 0 3 4 -1.</_>
        <_>
          5 2 3 2 2.</_></rects>
      <tilted>0</tilted></_>
    <_>
      <rects>
        <_>
          5 5 17 4 -1.</_>
        <_>
          5 7 17 2 2.</_></rects>
      <tilted>0</tilted></_>
    <_>
      <rects>
        <_>
          5 10 13 3 -1.</_>
        <_>
          5 11 13 1 3.</_></rects>
      <tilted>0</tilted></_>
    <_>
      <rects>
        <_>
          5 14 12 3 -1.</_>
        <_>
          5 15 12 1 3.</_></rects>
      <tilted>0</tilted></_>
    <_>
      <rects>
        <_>
          5 16 6 2 -1.</_>
        <_>
          5 17 6 1 2.</_></rects>
      <tilted>0</tilted></_>
    <_>
      <rects>
        <_>
          6 3 12 18 -1.</_>
        <_>
          6 9 12 6 3.</_></rects>
      <tilted>0</tilted></_>
    <_>
      <rects>
        <_>
          6 9 10 3 -1.</_>
        <_>
          6 10 10 1 3.</_></rects>
      <tilted>0</tilted></_>
    <_>
      <rects>
        <_>
          6 11 12 4 -1.</_>
        <_>
          6 13 12 2 2.</_></rects>
      <tilted>0</tilted></_>
    <_>
      <rects>
        <_>
          6 17 10 3 -1.</_>
        <_>
          6 18 10 1 3.</_></rects>
      <tilted>0</tilted></_>
    <_>
      <rects>
        <_>
          7 3 4 12 -1.</_>
        <_>
          7 7 4 4 3.</_></rects>
      <tilted>0</tilted></_>
    <_>
      <rects>
        <_>
          7 5 11 6 -1.</_>
        <_>
          7 7 11 2 3.</_></rects>
      <tilted>0</tilted></_>
    <_>
      <rects>
        <_>
          7 9 11 3 -1.</_>
        <_>
          7 10 11 1 3.</_></rects>
      <tilted>0</tilted></_>
    <_>
      <rects>
        <_>
          7 13 14 3 -1.</_>
        <_>
          7 14 14 1 3.</_></rects>
      <tilted>0</tilted></_>
    <_>
      <rects>
        <_>
          7 14 9 3 -1.</_>
        <_>
          7 15 9 1 3.</_></rects>
      <tilted>0</tilted></_>
    <_>
      <rects>
        <_>
          7 16 4 3 -1.</_>
        <_>
          7 17 4 1 3.</_></rects>
      <tilted>0</tilted></_>
    <_>
      <rects>
        <_>
          8 0 11 16 -1.</_>
        <_>
          8 8 11 8 2.</_></rects>
      <tilted>0</tilted></_>
    <_>
      <rects>
        <_>
          8 8 3 3 -1.</_>
        <_>
          8 9 3 1 3.</_></rects>
      <tilted>0</tilted></_>
    <_>
      <rects>
        <_>
          8 18 3 3 -1.</_>
        <_>
          8 19 3 1 3.</_></rects>
      <tilted>0</tilted></_>
    <_>
      <rects>
        <_>
          8 19 14 4 -1.</_>
        <_>
          8 21 14 2 2.</_></rects>
      <tilted>0</tilted></_>
    <_>
      <rects>
        <_>
          9 8 8 3 -1.</_>
        <_>
          9 9 8 1 3.</_></rects>
      <tilted>0</tilted></_>
    <_>
      <rects>
        <_>
          9 15 1 3 -1.</_>
        <_>
          9 16 1 1 3.</_></rects>
      <tilted>0</tilted></_>
    <_>
      <rects>
        <_>
          9 19 3 3 -1.</_>
        <_>
          9 20 3 1 3.</_></rects>
      <tilted>0</tilted></_>
    <_>
      <rects>
        <_>
          10 8 2 3 -1.</_>
        <_>
          10 9 2 1 3.</_></rects>
      <tilted>0</tilted></_>
    <_>
      <rects>
        <_>
          10 8 8 3 -1.</_>
        <_>
          10 9 8 1 3.</_></rects>
      <tilted>0</tilted></_>
    <_>
      <rects>
        <_>
          10 9 2 3 -1.</_>
        <_>
          10 10 2 1 3.</_></rects>
      <tilted>0</tilted></_>
    <_>
      <rects>
        <_>
          10 13 6 3 -1.</_>
        <_>
          10 14 6 1 3.</_></rects>
      <tilted>0</tilted></_>
    <_>
      <rects>
        <_>
          10 16 9 3 -1.</_>
        <_>
          10 17 9 1 3.</_></rects>
      <tilted>0</tilted></_>
    <_>
      <rects>
        <_>
          10 18 3 3 -1.</_>
        <_>
          10 19 3 1 3.</_></rects>
      <tilted>0</tilted></_>
    <_>
      <rects>
        <_>
          10 21 4 3 -1.</_>
        <_>
          10 22 4 1 3.</_></rects>
      <tilted>0</tilted></_>
    <_>
      <rects>
        <_>
          11 11 8 3 -1.</_>
        <_>
          11 12 8 1 3.</_></rects>
      <tilted>0</tilted></_>
    <_>
      <rects>
        <_>
          12 9 12 15 -1.</_>
        <_>
          18 9 6 15 2.</_></rects>
      <tilted>0</tilted></_>
    <_>
      <rects>
        <_>
          12 10 12 9 -1.</_>
        <_>
          18 10 6 9 2.</_></rects>
      <tilted>0</tilted></_>
    <_>
      <rects>
        <_>
          18 4 2 4 -1.</_>
        <_>
          18 4 1 2 2.</_>
        <_>
          19 6 1 2 2.</_></rects>
      <tilted>0</tilted></_>
    <_>
      <rects>
        <_>
          18 6 6 18 -1.</_>
        <_>
          18 12 6 6 3.</_></rects>
      <tilted>0</tilted></_>
    <_>
      <rects>
        <_>
          18 15 6 8 -1.</_>
        <_>
          21 15 3 8 2.</_></rects>
      <tilted>0</tilted></_>
    <_>
      <rects>
        <_>
          19 4 2 18 -1.</_>
        <_>
          19 13 2 9 2.</_></rects>
      <tilted>0</tilted></_>
    <_>
      <rects>
        <_>
          19 6 1 10 -1.</_>
        <_>
          19 11 1 5 2.</_></rects>
      <tilted>0</tilted></_>
    <_>
      <rects>
        <_>
          21 7 3 15 -1.</_>
        <_>
          21 12 3 5 3.</_></rects>
      <tilted>0</tilted></_></features></cascade>
</opencv_storage>
